<?xml version="1.0"?>
<opencv_storage>
<cascade>
  <stageType>BOOST</stageType>
  <featureType>LBP</featureType>
  <height>16</height>
  <width>16</width>
  <stageParams>
    <boostType>GAB</boostType>
    <minHitRate>9.9900001287460327e-01</minHitRate>
    <maxFalseAlarm>5.0000000000000000e-01</maxFalseAlarm>
    <weightTrimRate>9.4999999999999996e-01</weightTrimRate>
    <maxDepth>1</maxDepth>
    <maxWeakCount>100</maxWeakCount></stageParams>
  <featureParams>
    <maxCatCount>256</maxCatCount>
    <featSize>1</featSize></featureParams>
  <stageNum>13</stageNum>
  <stages>
    <!-- stage 0 -->
    <_>
      <maxWeakCount>6</maxWeakCount>
      <stageThreshold>-2.1238696575164795e+00</stageThreshold>
      <weakClassifiers>
        <_>
          <internalNodes>
            0 -1 3 -286283026 -10753 -811660609 -536872961 -262145 -5
            -1048577 -1</internalNodes>
          <leafValues>
            -8.6827683448791504e-01 5.4326188564300537e-01</leafValues></_>
        <_>
          <internalNodes>
            0 -1 0 -151060482 -636948770 -120661508 -993732388
            -890241026 -272504129 -671089665 -704651297</internalNodes>
          <leafValues>
            -8.0720436573028564e-01 5.0396341085433960e-01</leafValues></_>
        <_>
          <internalNodes>
            0 -1 31 -1 -65665 -288620558 -218957057 -11043977 -227051161
            -143132815 -143392905</internalNodes>
          <leafValues>
            -7.2295439243316650e-01 4.9763226509094238e-01</leafValues></_>
        <_>
          <internalNodes>
            0 -1 92 -411573504 -1153 -1544575149 -8391297 -238075641
            -536872241 58163567 -134220033</internalNodes>
          <leafValues>
            -6.8286788463592529e-01 5.0336474180221558e-01</leafValues></_>
        <_>
          <internalNodes>
            0 -1 77 -262146 -2296868 -6885516 -8061676 -6291460
            -1156448348 -34734084 -171576484</internalNodes>
          <leafValues>
            -7.2542339563369751e-01 4.5188876986503601e-01</leafValues></_>
        <_>
          <internalNodes>
            0 -1 9 -487600402 45009582 -420756494 -254814482 535820287
            -891292741 1660418028 -33554501</internalNodes>
          <leafValues>
            -5.9962606430053711e-01 5.0554484128952026e-01</leafValues></_></weakClassifiers></_>
    <!-- stage 1 -->
    <_>
      <maxWeakCount>7</maxWeakCount>
      <stageThreshold>-2.4409067630767822e+00</stageThreshold>
      <weakClassifiers>
        <_>
          <internalNodes>
            0 -1 128 -209 -545 -40111621 -234890273 -75501056 -67386833
            -3409189 -67108865</internalNodes>
          <leafValues>
            -7.4269461631774902e-01 5.4856157302856445e-01</leafValues></_>
        <_>
          <internalNodes>
            0 -1 8 -2 -196610 -10158084 -10682404 -131073 -196611
            -3342337 -540213250</internalNodes>
          <leafValues>
            -7.5539553165435791e-01 4.5583626627922058e-01</leafValues></_>
        <_>
          <internalNodes>
            0 -1 69 -851969 -606721 -327681 -9242626 -67174402
            -571424940 -327682 -9371654</internalNodes>
          <leafValues>
            -5.6158572435379028e-01 6.1976307630538940e-01</leafValues></_>
        <_>
          <internalNodes>
            0 -1 4 -1595694422 -19969 1109552687 -2662433 2013263615
            -16811009 -134217985 -67108865</internalNodes>
          <leafValues>
            -6.5224367380142212e-01 4.8046800494194031e-01</leafValues></_>
        <_>
          <internalNodes>
            0 -1 112 -4718595 -136380418 -67174404 -1638404 -153485316
            -574721148 -134623748 -1043858436</internalNodes>
          <leafValues>
            -5.9152126312255859e-01 4.6723872423171997e-01</leafValues></_>
        <_>
          <internalNodes>
            0 -1 25 -16777473 -85459081 -16843074 -119341318 -553654702
            1719066385 -1128796548 -159907977</internalNodes>
          <leafValues>
            -4.6604654192924500e-01 5.1358753442764282e-01</leafValues></_>
        <_>
          <internalNodes>
            0 -1 27 -134546433 -1610678277 -321988612 -606928898
            -67339298 2037412848 -1640694274 1987113970</internalNodes>
          <leafValues>
            -6.5220731496810913e-01 3.4894648194313049e-01</leafValues></_></weakClassifiers></_>
    <!-- stage 2 -->
    <_>
      <maxWeakCount>9</maxWeakCount>
      <stageThreshold>-2.4107048511505127e+00</stageThreshold>
      <weakClassifiers>
        <_>
          <internalNodes>
            0 -1 10 -269488401 -353705234 -577121065 -570432821
            -72614913 -340803361 -749733141 -2049</internalNodes>
          <leafValues>
            -7.6289808750152588e-01 5.2580642700195312e-01</leafValues></_>
        <_>
          <internalNodes>
            0 -1 71 -526592 -201851905 -579871393 -33 -67109889 -18177
            -795697 -1</internalNodes>
          <leafValues>
            -6.2840569019317627e-01 5.6153839826583862e-01</leafValues></_>
        <_>
          <internalNodes>
            0 -1 114 -134217729 -981538562 -841228812 -855769602
            -67119105 213706941 -638845703 -855639809</internalNodes>
          <leafValues>
            -5.7644671201705933e-01 5.4688495397567749e-01</leafValues></_>
        <_>
          <internalNodes>
            0 -1 2 -791740434 -87103538 -1133723137 1166403023
            -411107586 -1080099969 -258 1207957503</internalNodes>
          <leafValues>
            -6.0943365097045898e-01 4.4700613617897034e-01</leafValues></_>
        <_>
          <internalNodes>
            0 -1 30 -32909 -211864717 -643177097 -2428453 -740879565
            -1086379264 -67931376 -76300521</internalNodes>
          <leafValues>
            -5.5622684955596924e-01 4.7473967075347900e-01</leafValues></_>
        <_>
          <internalNodes>
            0 -1 106 -14155788 -571344920 -1290738700 -73409596
            -651626504 -78533977 721484632 2131222423</internalNodes>
          <leafValues>
            -6.1830437183380127e-01 4.0596950054168701e-01</leafValues></_>
        <_>
          <internalNodes>
            0 -1 139 -67108865 -1261511770 -552092176 -723649796
            -1141113857 137402534 -777477968 -587470340</internalNodes>
          <leafValues>
            -4.9416050314903259e-01 4.4005638360977173e-01</leafValues></_>
        <_>
          <internalNodes>
            0 -1 14 -4098 -65554 -134283290 755826628 -554831873
            -1144730747 -849544198 1460002447</internalNodes>
          <leafValues>
            -6.1974382400512695e-01 3.4245628118515015e-01</leafValues></_>
        <_>
          <internalNodes>
            0 -1 68 -67143425 2145272059 -644156929 2071132383
            -1157334124 -613799748 -215842856 -80576518</internalNodes>
          <leafValues>
            -4.6577611565589905e-01 4.5195123553276062e-01</leafValues></_></weakClassifiers></_>
    <!-- stage 3 -->
    <_>
      <maxWeakCount>10</maxWeakCount>
      <stageThreshold>-2.3699977397918701e+00</stageThreshold>
      <weakClassifiers>
        <_>
          <internalNodes>
            0 -1 39 -269489173 -357899542 -136613509 -263693 -71304193
            -889220181 -201329665 -1</internalNodes>
          <leafValues>
            -7.5733852386474609e-01 4.2881795763969421e-01</leafValues></_>
        <_>
          <internalNodes>
            0 -1 107 -8388849 -134219777 -207883265 -9761 -11776
            -69276673 -279054593 -209715201</internalNodes>
          <leafValues>
            -6.3133955001831055e-01 4.9365538358688354e-01</leafValues></_>
        <_>
          <internalNodes>
            0 -1 141 -4194309 -1359020129 -674761729 -1913791505
            -1477727297 -1561681236 -1936720641 -1929388805</internalNodes>
          <leafValues>
            -4.9444001913070679e-01 5.2870011329650879e-01</leafValues></_>
        <_>
          <internalNodes>
            0 -1 26 -65537 -854350 460119870 -5178370 -538509394
            -563069580 -11206792 -13566090</internalNodes>
          <leafValues>
            -5.7393485307693481e-01 4.0599265694618225e-01</leafValues></_>
        <_>
          <internalNodes>
            0 -1 137 -134217741 -71303382 -16 -1051138 -541067273
            -948961321 -16 -134217745</internalNodes>
          <leafValues>
            -2.9758033156394958e-01 7.1841180324554443e-01</leafValues></_>
        <_>
          <internalNodes>
            0 -1 22 -152047873 -623902722 -50397458 -218431770 -524578
            1819565652 -151585138 -235143185</internalNodes>
          <leafValues>
            -3.2469037175178528e-01 5.9844386577606201e-01</leafValues></_>
        <_>
          <internalNodes>
            0 -1 53 1950672588 -1328742402 -832410228 2030433797
            2003820031 -68182051 -270008641 1207957471</internalNodes>
          <leafValues>
            -6.9008731842041016e-01 2.8708678483963013e-01</leafValues></_>
        <_>
          <internalNodes>
            0 -1 90 -106529 -144951937 -83503649 -69453316 -276234252
            -607379016 -3474434 -4556872</internalNodes>
          <leafValues>
            -4.4348528981208801e-01 4.3817830085754395e-01</leafValues></_>
        <_>
          <internalNodes>
            0 -1 49 -136364037 -4521381 -149241345 2071640943 -77373648
            -1321785291 -76513676 -9230473</internalNodes>
          <leafValues>
            -5.0480097532272339e-01 3.6504030227661133e-01</leafValues></_>
        <_>
          <internalNodes>
            0 -1 70 -1968654157 -677670672 659019607 1573605757
            -1581270561 -69497969 2112611283 -574881794</internalNodes>
          <leafValues>
            -4.1845744848251343e-01 4.8886194825172424e-01</leafValues></_></weakClassifiers></_>
    <!-- stage 4 -->
    <_>
      <maxWeakCount>11</maxWeakCount>
      <stageThreshold>-2.5702500343322754e+00</stageThreshold>
      <weakClassifiers>
        <_>
          <internalNodes>
            0 -1 61 -1431588165 -543182413 -606617089 -1537 -71565313
            -2372709 -1 -570426369</internalNodes>
          <leafValues>
            -7.6355636119842529e-01 2.4801443517208099e-01</leafValues></_>
        <_>
          <internalNodes>
            0 -1 91 -262395 1970789887 -6423585 -14680097 -4245760
            -1096811777 -8733697 -1025</internalNodes>
          <leafValues>
            -6.8610823154449463e-01 3.6618450284004211e-01</leafValues></_>
        <_>
          <internalNodes>
            0 -1 81 -67437825 -570492419 -142680641 2013148159
            1589311452 -73368649 -15007750 -4554818</internalNodes>
          <leafValues>
            -4.9037951231002808e-01 4.9151915311813354e-01</leafValues></_>
        <_>
          <internalNodes>
            0 -1 15 -286265426 -827397394 -102405150 -771753238
            -855638605 -965838874 2004350975 -134217801</internalNodes>
          <leafValues>
            -4.3158373236656189e-01 5.2998161315917969e-01</leafValues></_>
        <_>
          <internalNodes>
            0 -1 94 -4195331 -2 -73400420 -524448 -7341076 -280742412
            -5373988 327284732</internalNodes>
          <leafValues>
            -5.4174792766571045e-01 4.2537784576416016e-01</leafValues></_>
        <_>
          <internalNodes>
            0 -1 45 -4097 -2139138 -1216418818 -1610948898 1610538878
            -810267828 -50405378 -11340162</internalNodes>
          <leafValues>
            -5.0067830085754395e-01 3.8052976131439209e-01</leafValues></_>
        <_>
          <internalNodes>
            0 -1 117 -1140853761 -2031814436 -625870375 -855650052
            -1979713603 -2001210240 404421304 -2063863556</internalNodes>
          <leafValues>
            -4.8350900411605835e-01 4.1051059961318970e-01</leafValues></_>
        <_>
          <internalNodes>
            0 -1 130 -8388816 1034941185 -950472384 -1547059553
            -610165360 -1784843749 2137305784 -2139621445</internalNodes>
          <leafValues>
            -4.6663975715637207e-01 3.7473434209823608e-01</leafValues></_>
        <_>
          <internalNodes>
            0 -1 13 -2 -1924223018 -333132050 17345542 -2098305 47179194
            -16777218 1157064654</internalNodes>
          <leafValues>
            -6.4609074592590332e-01 2.7650383114814758e-01</leafValues></_>
        <_>
          <internalNodes>
            0 -1 33 -73926657 -204827686 -1626744834 -741420196
            2065429964 339777280 1608973272 1912042482</internalNodes>
          <leafValues>
            -6.0807341337203979e-01 2.7100524306297302e-01</leafValues></_>
        <_>
          <internalNodes>
            0 -1 73 1717917440 -33556489 1991179791 -102268945
            2146039807 -67431721 1222857007 -152701185</internalNodes>
          <leafValues>
            -5.5289191007614136e-01 2.8487843275070190e-01</leafValues></_></weakClassifiers></_>
    <!-- stage 5 -->
    <_>
      <maxWeakCount>12</maxWeakCount>
      <stageThreshold>-2.4196794033050537e+00</stageThreshold>
      <weakClassifiers>
        <_>
          <internalNodes>
            0 -1 31 -1 -2097921 -604512257 -2049 -80740353 -8946313
            -80479233 -8913025</internalNodes>
          <leafValues>
            -6.9864076375961304e-01 4.2111802101135254e-01</leafValues></_>
        <_>
          <internalNodes>
            0 -1 128 -469 -16385 -1615089510 -188743937 -838865920
            -891304129 -153106690 -68158465</internalNodes>
          <leafValues>
            -5.2044379711151123e-01 5.2885657548904419e-01</leafValues></_>
        <_>
          <internalNodes>
            0 -1 122 -8388609 -320102680 2038141692 -570582788
            -1511001157 -2004165920 -571474435 -855638788</internalNodes>
          <leafValues>
            -4.9385213851928711e-01 4.6618786454200745e-01</leafValues></_>
        <_>
          <internalNodes>
            0 -1 37 -890311957 -487939894 1943271291 -671354417
            -206572545 -1883243593 -71838977 -134260481</internalNodes>
          <leafValues>
            -4.8216643929481506e-01 4.5073661208152771e-01</leafValues></_>
        <_>
          <internalNodes>
            0 -1 18 -553652529 -87103010 -254883194 -251727294
            1358164990 1413047149 -187009322 -143132937</internalNodes>
          <leafValues>
            -4.0931934118270874e-01 4.6140101552009583e-01</leafValues></_>
        <_>
          <internalNodes>
            0 -1 76 -2097158 -142485655 -1076895836 1060895542
            -1110444156 1196724468 -580911204 1575352134</internalNodes>
          <leafValues>
            -5.3897511959075928e-01 3.1997385621070862e-01</leafValues></_>
        <_>
          <internalNodes>
            0 -1 97 532611069 -1340280100 -685779972 -203427812
            2025255933 -1057654664 367392188 -1241516808</internalNodes>
          <leafValues>
            -4.3826928734779358e-01 3.6770626902580261e-01</leafValues></_>
        <_>
          <internalNodes>
            0 -1 115 -79753136 1029133523 -1463133861 -178521697
            -104619590 -66372085 137953211 -81004545</internalNodes>
          <leafValues>
            -3.8591480255126953e-01 4.1179847717285156e-01</leafValues></_>
        <_>
          <internalNodes>
            0 -1 47 -268435777 -537994803 -142552870 -543490051
            2080273104 1900171344 -9142448 -80543874</internalNodes>
          <leafValues>
            -4.3187084794044495e-01 3.4099066257476807e-01</leafValues></_>
        <_>
          <internalNodes>
            0 -1 55 -262465 -12664977 -285278210 -72155137 -1115796004
            -965707908 -536936580 -94700134</internalNodes>
          <leafValues>
            -3.5909143090248108e-01 4.3349015712738037e-01</leafValues></_>
        <_>
          <internalNodes>
            0 -1 21 -269485074 -2064846882 -31564050 1868758988
            -537928818 -2093972485 1342167247 1691873278</internalNodes>
          <leafValues>
            -5.7080745697021484e-01 2.5816419720649719e-01</leafValues></_>
        <_>
          <internalNodes>
            0 -1 136 -2062 -80740466 2122315552 -202375172 -6291533
            -729948164 -286280492 -1006633218</internalNodes>
          <leafValues>
            -3.2502546906471252e-01 4.4888991117477417e-01</leafValues></_></weakClassifiers></_>
    <!-- stage 6 -->
    <_>
      <maxWeakCount>12</maxWeakCount>
      <stageThreshold>-2.1902132034301758e+00</stageThreshold>
      <weakClassifiers>
        <_>
          <internalNodes>
            0 -1 5 -353374225 -263425 625736543 -4129 -3145793 -71330817
            -2098177 -538976273</internalNodes>
          <leafValues>
            -6.7038601636886597e-01 4.3784376978874207e-01</leafValues></_>
        <_>
          <internalNodes>
            0 -1 30 -5 -2110701 -142870537 -262273 -211584207
            -1307872719 -10782925 -8653993</internalNodes>
          <leafValues>
            -5.4389828443527222e-01 4.1932812333106995e-01</leafValues></_>
        <_>
          <internalNodes>
            0 -1 3 -18487058 -167808513 -347385701 -671227427 -67110401
            -265991 -44433409 -12845057</internalNodes>
          <leafValues>
            -4.6958395838737488e-01 4.3554615974426270e-01</leafValues></_>
        <_>
          <internalNodes>
            0 -1 23 -5377 -553926977 -16974226 -25239942 -687878194
            1416908367 -117514518 -134742193</internalNodes>
          <leafValues>
            -3.5102427005767822e-01 5.1285159587860107e-01</leafValues></_>
        <_>
          <internalNodes>
            0 -1 138 -14 -291047280 -1444946480 -52169740 -469764105
            68518880 -33577504 -841097988</internalNodes>
          <leafValues>
            -5.2160257101058960e-01 3.5602110624313354e-01</leafValues></_>
        <_>
          <internalNodes>
            0 -1 129 -4608 -140531715 420538142 -36463657 1048478976
            -941676909 705800040 1085532059</internalNodes>
          <leafValues>
            -5.1701730489730835e-01 3.1782090663909912e-01</leafValues></_>
        <_>
          <internalNodes>
            0 -1 60 -15335460 -69283618 -920789154 -1142358570
            2104227804 1967481440 -7343336 1945434106</internalNodes>
          <leafValues>
            -5.5408388376235962e-01 2.7879092097282410e-01</leafValues></_>
        <_>
          <internalNodes>
            0 -1 123 -1897925634 -1528917798 1594217437 -1931677480
            -1967151365 179994762 536476057 -1929388840</internalNodes>
          <leafValues>
            -5.1248973608016968e-01 2.8074553608894348e-01</leafValues></_>
        <_>
          <internalNodes>
            0 -1 1 -487919898 713791206 -436240393 1152908918 536346077
            469228475 -708050946 1408761727</internalNodes>
          <leafValues>
            -6.3838714361190796e-01 2.0498718321323395e-01</leafValues></_>
        <_>
          <internalNodes>
            0 -1 67 -10559841 -67161729 -83430434 -539315382 -103091076
            1387165109 -104662018 -67177286</internalNodes>
          <leafValues>
            -3.7627461552619934e-01 3.8716360926628113e-01</leafValues></_>
        <_>
          <internalNodes>
            0 -1 59 -411610129 2013164083 -720185634 2011322710
            1933605472 420741138 -71278768 -13469069</internalNodes>
          <leafValues>
            -4.9123620986938477e-01 2.8208518028259277e-01</leafValues></_>
        <_>
          <internalNodes>
            0 -1 101 -21562059 -118836144 1368878420 2141118584
            -1213334603 145895668 277819708 232756344</internalNodes>
          <leafValues>
            -5.3020560741424561e-01 2.5129815936088562e-01</leafValues></_></weakClassifiers></_>
    <!-- stage 7 -->
    <_>
      <maxWeakCount>15</maxWeakCount>
      <stageThreshold>-2.5366988182067871e+00</stageThreshold>
      <weakClassifiers>
        <_>
          <internalNodes>
            0 -1 10 -134222865 -286601494 1935536727 -1953 -202640389
            -97783157 -748686593 -2099745</internalNodes>
          <leafValues>
            -7.0967471599578857e-01 2.4023477733135223e-01</leafValues></_>
        <_>
          <internalNodes>
            0 -1 140 -2053 -52773638 -771760683 -1931512580 -67109905
            -1997372689 -771758595 -1929381377</internalNodes>
          <leafValues>
            -5.3565055131912231e-01 4.0583682060241699e-01</leafValues></_>
        <_>
          <internalNodes>
            0 -1 105 -13434800 -146833921 -9961509 -3671557 -74255937
            -111564757 -81330181 -8388673</internalNodes>
          <leafValues>
            -4.4379022717475891e-01 4.4382032752037048e-01</leafValues></_>
        <_>
          <internalNodes>
            0 -1 30 -245407885 -56389 -639631401 -67896359 -679014349
            -1237355231 2054389552 -76317935</internalNodes>
          <leafValues>
            -5.5975794792175293e-01 2.9616725444793701e-01</leafValues></_>
        <_>
          <internalNodes>
            0 -1 58 -134218021 -612443209 -327685 -617447425 -805380908
            -50433164 -269025286 -3473410</internalNodes>
          <leafValues>
            -3.4554740786552429e-01 4.9596071243286133e-01</leafValues></_>
        <_>
          <internalNodes>
            0 -1 7 -69794 1734651742 -2311172 -861643780 -286344466
            -1896567843 -537989652 1155915135</internalNodes>
          <leafValues>
            -7.3682284355163574e-01 1.8281757831573486e-01</leafValues></_>
        <_>
          <internalNodes>
            0 -1 137 -135266310 -1154482207 -16 -1050652 -163577868
            1173225413 -131088 -714080514</internalNodes>
          <leafValues>
            -3.4651851654052734e-01 4.3574947118759155e-01</leafValues></_>
        <_>
          <internalNodes>
            0 -1 70 -2000954957 -646327247 1878917115 -580266115
            -637542401 -33603657 2080368603 -1616128513</internalNodes>
          <leafValues>
            -3.2923245429992676e-01 4.1813847422599792e-01</leafValues></_>
        <_>
          <internalNodes>
            0 -1 127 -142609829 -570737801 1466793599 -244057345
            -464009216 -12635747 -864290086 -770975285</internalNodes>
          <leafValues>
            -2.9413470625877380e-01 4.7815704345703125e-01</leafValues></_>
        <_>
          <internalNodes>
            0 -1 57 -8457217 -805504010 -182783489 129563604 -841073804
            -2020295908 1253718234 863433598</internalNodes>
          <leafValues>
            -5.2945411205291748e-01 2.5345623493194580e-01</leafValues></_>
        <_>
          <internalNodes>
            0 -1 63 -67108866 -6947092 -1186399268 1026600620 1004396540
            -409660732 1575542732 16889605</internalNodes>
          <leafValues>
            -6.2937986850738525e-01 2.0448547601699829e-01</leafValues></_>
        <_>
          <internalNodes>
            0 -1 25 -1090548018 -610815369 -1877965594 2022371770
            1320895822 1679069203 -49840514 -147587777</internalNodes>
          <leafValues>
            -3.9831030368804932e-01 3.2939645648002625e-01</leafValues></_>
        <_>
          <internalNodes>
            0 -1 80 -409477379 1538168222 -543177284 -1087505356
            -1278529168 1613274034 -731161880 342228734</internalNodes>
          <leafValues>
            -5.1518809795379639e-01 2.3321765661239624e-01</leafValues></_>
        <_>
          <internalNodes>
            0 -1 126 -551946480 2078145370 -1861043681 -1615940845
            -173869104 -1309998712 2018046582 573816338</internalNodes>
          <leafValues>
            -4.9788868427276611e-01 2.3837271332740784e-01</leafValues></_>
        <_>
          <internalNodes>
            0 -1 42 -706810266 -1698384994 -463288156 1751443526
            -740558401 284926449 1599826687 281540583</internalNodes>
          <leafValues>
            -6.6109156608581543e-01 1.7445948719978333e-01</leafValues></_></weakClassifiers></_>
    <!-- stage 8 -->
    <_>
      <maxWeakCount>17</maxWeakCount>
      <stageThreshold>-2.2405679225921631e+00</stageThreshold>
      <weakClassifiers>
        <_>
          <internalNodes>
            0 -1 114 -144703489 -639642917 -43395619 -805349633
            -134220801 -855639367 -4195841 -838860801</internalNodes>
          <leafValues>
            -6.9346487522125244e-01 2.8086420893669128e-01</leafValues></_>
        <_>
          <internalNodes>
            0 -1 34 -2102676550 -540289313 -673452129 -3162885 -1025
            -68439269 -353375233 -9473</internalNodes>
          <leafValues>
            -5.2877628803253174e-01 3.5212004184722900e-01</leafValues></_>
        <_>
          <internalNodes>
            0 -1 72 -134262528 -8404993 -218898625 -536870945 2011391479
            -8461381 1954006223 -257</internalNodes>
          <leafValues>
            -5.7506632804870605e-01 2.7627599239349365e-01</leafValues></_>
        <_>
          <internalNodes>
            0 -1 81 -17239809 -59344176 -614572609 2077382527 -184926268
            1608802674 -8750082 -80052354</internalNodes>
          <leafValues>
            -4.5141816139221191e-01 3.2321888208389282e-01</leafValues></_>
        <_>
          <internalNodes>
            0 -1 128 -75764214 -11060518 1083928634 1420620539
            -847784960 -657209544 -162356022 -502598657</internalNodes>
          <leafValues>
            -4.2494037747383118e-01 3.4867262840270996e-01</leafValues></_>
        <_>
          <internalNodes>
            0 -1 16 -536949026 -589518692 -775912228 -37827364
            -908067409 -1894858005 164420861 1465206783</internalNodes>
          <leafValues>
            -4.3308129906654358e-01 3.2281914353370667e-01</leafValues></_>
        <_>
          <internalNodes>
            0 -1 31 -2392065 -1143998497 -334430624 -1222981124
            1996519497 -771667936 -1153223840 -9175177</internalNodes>
          <leafValues>
            -4.8685637116432190e-01 2.7197432518005371e-01</leafValues></_>
        <_>
          <internalNodes>
            0 -1 66 -1 -28393639 -755042850 -98782538 -541401102
            -246400524 -627383042 -67174418</internalNodes>
          <leafValues>
            -3.7945842742919922e-01 3.5169249773025513e-01</leafValues></_>
        <_>
          <internalNodes>
            0 -1 96 -134217733 -1483811410 -552214672 -70584466
            -68423695 1193599852 -11803660 331872738</internalNodes>
          <leafValues>
            -5.0998240709304810e-01 2.5474196672439575e-01</leafValues></_>
        <_>
          <internalNodes>
            0 -1 108 -148111400 2144843707 297987056 -4218988 421131160
            -543689021 226683706 1795620723</internalNodes>
          <leafValues>
            -4.6685761213302612e-01 2.5996738672256470e-01</leafValues></_>
        <_>
          <internalNodes>
            0 -1 15 -369127441 -286596918 -208340542 -705178966
            1754003963 -970272470 1121166325 -706251961</internalNodes>
          <leafValues>
            -3.6926776170730591e-01 3.4286874532699585e-01</leafValues></_>
        <_>
          <internalNodes>
            0 -1 24 -1361123589 -828450562 1984879004 -272966694
            792123546 1215610908 2087730940 2002255822</internalNodes>
          <leafValues>
            -4.0362626314163208e-01 2.7937304973602295e-01</leafValues></_>
        <_>
          <internalNodes>
            0 -1 116 -1095582727 -1817642016 -620629635 -1074859024
            433061621 576795164 530577853 -1753222916</internalNodes>
          <leafValues>
            -3.8464668393135071e-01 3.1410712003707886e-01</leafValues></_>
        <_>
          <internalNodes>
            0 -1 132 -13633680 529251108 -226430848 -1825524860
            1507175112 965374378 -1685571160 205034042</internalNodes>
          <leafValues>
            -5.3160196542739868e-01 2.0314376056194305e-01</leafValues></_>
        <_>
          <internalNodes>
            0 -1 64 -270615553 779362654 -751504386 464565044 327825276
            1760883456 -29068948 23393970</internalNodes>
          <leafValues>
            -5.6833100318908691e-01 1.8656790256500244e-01</leafValues></_>
        <_>
          <internalNodes>
            0 -1 79 -234955777 2137453266 -950674451 803142652
            2077782740 979118960 1064107772 90665850</internalNodes>
          <leafValues>
            -4.4740185141563416e-01 2.4453324079513550e-01</leafValues></_>
        <_>
          <internalNodes>
            0 -1 124 -991997116 -674103345 1191924731 1608192101
            1315155100 -1280738649 1230032351 555860570</internalNodes>
          <leafValues>
            -4.4349107146263123e-01 2.4675041437149048e-01</leafValues></_></weakClassifiers></_>
    <!-- stage 9 -->
    <_>
      <maxWeakCount>19</maxWeakCount>
      <stageThreshold>-2.3656160831451416e+00</stageThreshold>
      <weakClassifiers>
        <_>
          <internalNodes>
            0 -1 141 -1 -1361072385 -167845921 -2013274145 -2102529
            -1895845121 -605028609 -1879048193</internalNodes>
          <leafValues>
            -7.2984200716018677e-01 1.3442060351371765e-01</leafValues></_>
        <_>
          <internalNodes>
            0 -1 61 -1431653702 -710962992 1601391331 -176194143
            -215220801 -2371333 -11559937 -704678913</internalNodes>
          <leafValues>
            -5.6055945158004761e-01 2.8664931654930115e-01</leafValues></_>
        <_>
          <internalNodes>
            0 -1 107 -8390133 -142608387 -757335553 -144714625
            -167993344 -73467049 -1441879361 1946153983</internalNodes>
          <leafValues>
            -5.1719361543655396e-01 2.9537916183471680e-01</leafValues></_>
        <_>
          <internalNodes>
            0 -1 69 -682427393 -204453633 -46606881 -11340612 -106900516
            1590867760 -1076298758 -9240806</internalNodes>
          <leafValues>
            -3.8717082142829895e-01 3.8744136691093445e-01</leafValues></_>
        <_>
          <internalNodes>
            0 -1 29 -2097441 -69742539 -740768346 -216884227 -76334320
            -77246176 -143261840 -9177312</internalNodes>
          <leafValues>
            -4.4222342967987061e-01 2.9520240426063538e-01</leafValues></_>
        <_>
          <internalNodes>
            0 -1 23 -16781569 -17039425 2130230974 -58794314 -1124098612
            1417039463 -251802146 -193986849</internalNodes>
          <leafValues>
            -3.3222571015357971e-01 4.0849658846855164e-01</leafValues></_>
        <_>
          <internalNodes>
            0 -1 120 -1050625 1738800096 -134218384 -402705168
            -145295375 777385972 -167774216 -538968328</internalNodes>
          <leafValues>
            -3.3233028650283813e-01 3.7067189812660217e-01</leafValues></_>
        <_>
          <internalNodes>
            0 -1 44 -33574177 -650055874 -16986386 -109142330
            -1932156977 472972662 -721464066 1702352886</internalNodes>
          <leafValues>
            -2.9607561230659485e-01 3.6826375126838684e-01</leafValues></_>
        <_>
          <internalNodes>
            0 -1 85 -1034944496 -247490055 1829785565 1473770379
            -237423873 -557203280 1661922495 1779678201</internalNodes>
          <leafValues>
            -4.1412597894668579e-01 2.7287718653678894e-01</leafValues></_>
        <_>
          <internalNodes>
            0 -1 104 -201129987 -1088667172 -222030855 2145269816
            721416637 581853924 469359869 -605048580</internalNodes>
          <leafValues>
            -3.4555467963218689e-01 2.9290813207626343e-01</leafValues></_>
        <_>
          <internalNodes>
            0 -1 74 -713556276 -1202063874 682687232 971890591
            1968560028 2134212443 637826831 1439168175</internalNodes>
          <leafValues>
            -4.6609354019165039e-01 2.2640402615070343e-01</leafValues></_>
        <_>
          <internalNodes>
            0 -1 43 -268438578 1569505230 1429098438 925499006
            -1688404994 108044718 -587793266 13976103</internalNodes>
          <leafValues>
            -4.8616197705268860e-01 2.1180659532546997e-01</leafValues></_>
        <_>
          <internalNodes>
            0 -1 39 -1054094710 -368402262 -683169183 -775710256
            670744575 -1887269944 -226033194 -974148875</internalNodes>
          <leafValues>
            -3.6790922284126282e-01 2.8597822785377502e-01</leafValues></_>
        <_>
          <internalNodes>
            0 -1 135 -221 -1225926209 2069099440 -594030086 -341980223
            1687957529 1792265184 -1579426817</internalNodes>
          <leafValues>
            -3.2711580395698547e-01 3.1456068158149719e-01</leafValues></_>
        <_>
          <internalNodes>
            0 -1 117 -1141964834 713349340 -561908483 -824421188
            294302588 -2012089944 423115432 -1933904648</internalNodes>
          <leafValues>
            -4.9682867527008057e-01 1.9196753203868866e-01</leafValues></_>
        <_>
          <internalNodes>
            0 -1 56 -285235457 937120127 -845381910 1540549562
            -469838898 1914474611 -207301794 -176687490</internalNodes>
          <leafValues>
            -3.1644511222839355e-01 3.0121579766273499e-01</leafValues></_>
        <_>
          <internalNodes>
            0 -1 87 -244910627 1376867159 231014104 1087476 1455582188
            1677740288 2129775279 153506222</internalNodes>
          <leafValues>
            -3.2921534776687622e-01 2.8893288969993591e-01</leafValues></_>
        <_>
          <internalNodes>
            0 -1 133 -201327780 -204934648 1359118744 -238226480
            -21382212 1930470177 -548013576 1233056638</internalNodes>
          <leafValues>
            -4.0351325273513794e-01 2.3453809320926666e-01</leafValues></_>
        <_>
          <internalNodes>
            0 -1 49 -1211029529 -1280638885 -2146241805 2130743366
            -80603116 -1190715125 -82584964 -76321157</internalNodes>
          <leafValues>
            -3.1856459379196167e-01 3.0025723576545715e-01</leafValues></_></weakClassifiers></_>
    <!-- stage 10 -->
    <_>
      <maxWeakCount>21</maxWeakCount>
      <stageThreshold>-2.2415544986724854e+00</stageThreshold>
      <weakClassifiers>
        <_>
          <internalNodes>
            0 -1 49 -1 -2360581 -718144033 -538979361 -82051393
            -10793421 -9768961 -8388737</internalNodes>
          <leafValues>
            -6.1577719449996948e-01 3.5992461442947388e-01</leafValues></_>
        <_>
          <internalNodes>
            0 -1 141 -536885505 -1895915012 588992991 -1930010881
            -1429230865 145402014 -270538241 -1931478785</internalNodes>
          <leafValues>
            -5.4170882701873779e-01 2.5142428278923035e-01</leafValues></_>
        <_>
          <internalNodes>
            0 -1 11 -993072434 1749164778 -765525775 -671714974
            -596645969 -443791190 -1020268577 1969223543</internalNodes>
          <leafValues>
            -4.9882653355598450e-01 2.8129032254219055e-01</leafValues></_>
        <_>
          <internalNodes>
            0 -1 62 -534730614 -604504609 562115347 -1509951163
            -33837569 -274263 -6438913 -36441090</internalNodes>
          <leafValues>
            -4.4677126407623291e-01 2.8860217332839966e-01</leafValues></_>
        <_>
          <internalNodes>
            0 -1 68 -740885249 2147364971 -783134209 1932932983
            2065982420 1517429494 -1148011526 -12943554</internalNodes>
          <leafValues>
            -3.8347631692886353e-01 3.3109569549560547e-01</leafValues></_>
        <_>
          <internalNodes>
            0 -1 110 -74449032 -148406472 -977536240 -1283001538
            -1386223200 493658724 -41994452 1672991294</internalNodes>
          <leafValues>
            -4.5837086439132690e-01 2.5444674491882324e-01</leafValues></_>
        <_>
          <internalNodes>
            0 -1 121 1000059887 973796346 -980708652 -877923596
            -1517305867 606179716 1908397016 -546574088</internalNodes>
          <leafValues>
            -3.8557153940200806e-01 2.6956543326377869e-01</leafValues></_>
        <_>
          <internalNodes>
            0 -1 131 -9444054 -147869833 749730383 -789323782 -134224384
            2113371862 -2068132118 -218628357</internalNodes>
          <leafValues>
            -3.0658632516860962e-01 3.4280863404273987e-01</leafValues></_>
        <_>
          <internalNodes>
            0 -1 75 -2099201 1966546420 -1619001348 997310422 333380596
            -608914464 434926044 1635251070</internalNodes>
          <leafValues>
            -3.3104735612869263e-01 3.0248007178306580e-01</leafValues></_>
        <_>
          <internalNodes>
            0 -1 82 -1090519041 1808203614 -335618049 1064631294
            -1168113668 -159615288 -44566530 1073740782</internalNodes>
          <leafValues>
            -3.1284645199775696e-01 3.5500019788742065e-01</leafValues></_>
        <_>
          <internalNodes>
            0 -1 115 -5566381 -704676463 1560435065 -39078497 -606492422
            -124057210 218693051 -1285360645</internalNodes>
          <leafValues>
            -3.2204324007034302e-01 3.3432272076606750e-01</leafValues></_>
        <_>
          <internalNodes>
            0 -1 46 -805382401 1750910302 1600011006 1866791390
            1236990974 1363415348 2138722302 1977070462</internalNodes>
          <leafValues>
            -4.4875964522361755e-01 2.3010781407356262e-01</leafValues></_>
        <_>
          <internalNodes>
            0 -1 54 -1912458838 -642580478 2131350869 1442820513
            -892342018 -1349836389 1834938867 -638363853</internalNodes>
          <leafValues>
            -3.4744536876678467e-01 2.7017259597778320e-01</leafValues></_>
        <_>
          <internalNodes>
            0 -1 41 -1127547138 272805612 -1005942106 2405936 1002156919
            114263027 -606341136 7861030</internalNodes>
          <leafValues>
            -6.1573529243469238e-01 1.4797338843345642e-01</leafValues></_>
        <_>
          <internalNodes>
            0 -1 19 -1577143298 1069717964 -712244336 -1483168132
            1348264924 2013528068 1363169688 1987320660</internalNodes>
          <leafValues>
            -7.2098588943481445e-01 1.2276405096054077e-01</leafValues></_>
        <_>
          <internalNodes>
            0 -1 51 -347936309 -490321752 -484978986 1440330803
            2067469246 -606209301 -275883555 -788617</internalNodes>
          <leafValues>
            -3.6126247048377991e-01 2.5791642069816589e-01</leafValues></_>
        <_>
          <internalNodes>
            0 -1 93 -101985825 -784892097 1078676047 656553579 595439275
            -818421946 1346646159 2103632991</internalNodes>
          <leafValues>
            -2.2614091634750366e-01 4.2553955316543579e-01</leafValues></_>
        <_>
          <internalNodes>
            0 -1 103 -606097419 -366636668 1507235824 -206767204
            -213925900 207864696 1525475284 -682183338</internalNodes>
          <leafValues>
            -4.3545016646385193e-01 2.2764033079147339e-01</leafValues></_>
        <_>
          <internalNodes>
            0 -1 30 -1252581391 -81851466 -73994114 -208473729
            -1023205855 889915665 977285908 -80217259</internalNodes>
          <leafValues>
            -4.4765344262123108e-01 2.1682897210121155e-01</leafValues></_>
        <_>
          <internalNodes>
            0 -1 20 -340017 148375646 -1197554978 534703350 1316876926
            229548634 2128729850 1963404891</internalNodes>
          <leafValues>
            -4.0186110138893127e-01 2.3526686429977417e-01</leafValues></_>
        <_>
          <internalNodes>
            0 -1 113 -678771211 211177980 1401133311 1391645652
            -1941446403 -1917828372 83923260 -1933599236</internalNodes>
          <leafValues>
            -4.0914440155029297e-01 2.2820703685283661e-01</leafValues></_></weakClassifiers></_>
    <!-- stage 11 -->
    <_>
      <maxWeakCount>21</maxWeakCount>
      <stageThreshold>-2.2329716682434082e+00</stageThreshold>
      <weakClassifiers>
        <_>
          <internalNodes>
            0 -1 118 -1957 -2100769 514717695 -1025 -82661170 -5537653
            -1146617857 -67372101</internalNodes>
          <leafValues>
            -6.1743664741516113e-01 2.8333333134651184e-01</leafValues></_>
        <_>
          <internalNodes>
            0 -1 31 -538970625 -557089 -678906369 -537121 2066152703
            -76333773 -281542789 -9175169</internalNodes>
          <leafValues>
            -4.1319331526756287e-01 3.8742271065711975e-01</leafValues></_>
        <_>
          <internalNodes>
            0 -1 22 -4354 -19415042 -17367442 -184877334 536862431
            1551138390 1979141790 -201326737</internalNodes>
          <leafValues>
            -3.5986790060997009e-01 3.7411820888519287e-01</leafValues></_>
        <_>
          <internalNodes>
            0 -1 32 -262158338 -70088228 -1491150402 -168779830
            2064888302 1456479136 931299290 2146664434</internalNodes>
          <leafValues>
            -5.0134414434432983e-01 2.5586315989494324e-01</leafValues></_>
        <_>
          <internalNodes>
            0 -1 125 -15759616 -202902561 -133513011 -280521993
            -1327499862 -217545841 -1439041142 100903711</internalNodes>
          <leafValues>
            -3.9675465226173401e-01 2.9553443193435669e-01</leafValues></_>
        <_>
          <internalNodes>
            0 -1 6 -904926481 -925965112 -2062172297 2077225035
            2072869783 -623912278 1881872831 2004874599</internalNodes>
          <leafValues>
            -4.5051956176757812e-01 2.2414198517799377e-01</leafValues></_>
        <_>
          <internalNodes>
            0 -1 139 -774373381 -1265867862 1400953808 -59984388
            2045640639 146583010 -505158672 -1929581060</internalNodes>
          <leafValues>
            -5.0931328535079956e-01 1.8515364825725555e-01</leafValues></_>
        <_>
          <internalNodes>
            0 -1 98 -60844079 -1199254786 -44970376 486530136
            -1280790028 6860212 -198248200 1559231743</internalNodes>
          <leafValues>
            -4.2951196432113647e-01 2.0764434337615967e-01</leafValues></_>
        <_>
          <internalNodes>
            0 -1 86 2011164932 401844223 -1172589651 -140519937
            -236354649 -208023430 -783697686 -1094714947</internalNodes>
          <leafValues>
            -3.3797603845596313e-01 2.6560559868812561e-01</leafValues></_>
        <_>
          <internalNodes>
            0 -1 17 -209715201 -640878658 -320565522 -2515882 -552599625
            112176111 1274863274 620713119</internalNodes>
          <leafValues>
            -3.2638370990753174e-01 2.8851011395454407e-01</leafValues></_>
        <_>
          <internalNodes>
            0 -1 95 -1107314181 2141188606 -572794508 2144817704
            -272919628 188907588 -15862300 65529727</internalNodes>
          <leafValues>
            -4.2107212543487549e-01 2.1183694899082184e-01</leafValues></_>
        <_>
          <internalNodes>
            0 -1 134 -34078848 -679179459 -133741968 -1688882242
            2135922860 -1694668638 -80382552 1274542970</internalNodes>
          <leafValues>
            -3.3579882979393005e-01 2.6565039157867432e-01</leafValues></_>
        <_>
          <internalNodes>
            0 -1 40 1153478314 1342178380 1175259220 1561473700
            -1596130321 562652066 374068108 1080915412</internalNodes>
          <leafValues>
            -4.7444239258766174e-01 1.9194591045379639e-01</leafValues></_>
        <_>
          <internalNodes>
            0 -1 67 -547451137 1994338847 -260640289 1542471734 -6407814
            1399603813 -155404424 -76107842</internalNodes>
          <leafValues>
            -3.5646656155586243e-01 2.4340556561946869e-01</leafValues></_>
        <_>
          <internalNodes>
            0 -1 83 1469890556 1441053540 -715231236 858970744 702640508
            921024976 165429704 1105604620</internalNodes>
          <leafValues>
            -5.7881987094879150e-01 1.4564496278762817e-01</leafValues></_>
        <_>
          <internalNodes>
            0 -1 89 -1346438145 769571640 -582221868 -46476804 127588221
            1819551764 1453929436 389255614</internalNodes>
          <leafValues>
            -3.4484764933586121e-01 2.5160154700279236e-01</leafValues></_>
        <_>
          <internalNodes>
            0 -1 48 526056703 -622964386 305584858 1457320160 -6420778
            1322258948 439117784 2137481807</internalNodes>
          <leafValues>
            -3.6949482560157776e-01 2.3070304095745087e-01</leafValues></_>
        <_>
          <internalNodes>
            0 -1 99 -1196033 -147505348 -1092681892 2074132412
            -548653094 -1077139586 1604146686 234829606</internalNodes>
          <leafValues>
            -2.5158530473709106e-01 3.3463928103446960e-01</leafValues></_>
        <_>
          <internalNodes>
            0 -1 38 475230850 1589825517 45310720 -1229719891 1530085375
            -1677770593 1705459850 564912911</internalNodes>
          <leafValues>
            -5.5193138122558594e-01 1.5020208060741425e-01</leafValues></_>
        <_>
          <internalNodes>
            0 -1 70 -2110611022 1423159326 -1720888334 1371619705
            -640962341 -21294447 -605325629 -710037131</internalNodes>
          <leafValues>
            -3.8325875997543335e-01 2.1454840898513794e-01</leafValues></_>
        <_>
          <internalNodes>
            0 -1 109 -578845986 2079831935 1171185 1696554983 1612451246
            -16828554 68447406 153282431</internalNodes>
          <leafValues>
            -2.7649191021919250e-01 3.1932467222213745e-01</leafValues></_></weakClassifiers></_>
    <!-- stage 12 -->
    <_>
      <maxWeakCount>21</maxWeakCount>
      <stageThreshold>-2.1150484085083008e+00</stageThreshold>
      <weakClassifiers>
        <_>
          <internalNodes>
            0 -1 123 -270535685 -318769409 -616842753 -302001059
            -276038657 -1910782225 -603989057 -1879048705</internalNodes>
          <leafValues>
            -6.8061304092407227e-01 7.6978549361228943e-02</leafValues></_>
        <_>
          <internalNodes>
            0 -1 5 -521427158 -74730770 990472573 -672409377 -134234113
            -574644053 -288884002 -573580049</internalNodes>
          <leafValues>
            -3.9413633942604065e-01 3.5939058661460876e-01</leafValues></_>
        <_>
          <internalNodes>
            0 -1 119 -134221234 -109185665 809951839 -183248521 -4489152
            -176164993 1649733871 -226770961</internalNodes>
          <leafValues>
            -3.3739313483238220e-01 3.6115571856498718e-01</leafValues></_>
        <_>
          <internalNodes>
            0 -1 12 -657682738 -95901492 -238815505 -1017821996
            2145381119 2065203913 442354170 1131762039</internalNodes>
          <leafValues>
            -4.5471364259719849e-01 2.4259446561336517e-01</leafValues></_>
        <_>
          <internalNodes>
            0 -1 30 -142643206 -4761261 -243466537 -536871073 -686737103
            -1161203168 -12681456 -9209065</internalNodes>
          <leafValues>
            -4.1289013624191284e-01 2.6335427165031433e-01</leafValues></_>
        <_>
          <internalNodes>
            0 -1 28 -17828097 -566296613 -84492546 -21038338 369082318
            -791183548 -463138 -2097201</internalNodes>
          <leafValues>
            -2.9149910807609558e-01 3.5237425565719604e-01</leafValues></_>
        <_>
          <internalNodes>
            0 -1 100 -22490179 2144093140 -920653347 -4393288 2032990964
            742301864 551293180 -1615976200</internalNodes>
          <leafValues>
            -4.1069662570953369e-01 2.3080417513847351e-01</leafValues></_>
        <_>
          <internalNodes>
            0 -1 78 -2097153 -1896224769 -141299233 -1216697391
            -405243956 -17776070 -12912646 -135069702</internalNodes>
          <leafValues>
            -3.0948352813720703e-01 2.8852733969688416e-01</leafValues></_>
        <_>
          <internalNodes>
            0 -1 4 14910190 -67108865 1075907631 738057565 2002728029
            -5084757 -418389761 737924091</internalNodes>
          <leafValues>
            -5.4502964019775391e-01 1.7427308857440948e-01</leafValues></_>
        <_>
          <internalNodes>
            0 -1 50 -657206273 -926772850 -732767118 1073151742
            1661414352 1131675696 1913025376 -9242301</internalNodes>
          <leafValues>
            -4.2451226711273193e-01 1.8721294403076172e-01</leafValues></_>
        <_>
          <internalNodes>
            0 -1 138 -70 2066644728 -1073872912 -1175781380 -185075713
            213254134 -21008 -639631874</internalNodes>
          <leafValues>
            -2.8518283367156982e-01 3.0983135104179382e-01</leafValues></_>
        <_>
          <internalNodes>
            0 -1 102 -614466196 1934076927 -1429537972 512928573
            1417447096 2003821292 52232 285410567</internalNodes>
          <leafValues>
            -4.1124972701072693e-01 2.0184478163719177e-01</leafValues></_>
        <_>
          <internalNodes>
            0 -1 52 1365564782 824460887 -706880009 628184839 2074012644
            938680567 1752364742 24326611</internalNodes>
          <leafValues>
            -4.2574530839920044e-01 1.9852234423160553e-01</leafValues></_>
        <_>
          <internalNodes>
            0 -1 84 -705415947 -251441 -787032225 2069128135 -75861516
            838347275 -1678100016 -138782198</internalNodes>
          <leafValues>
            -3.4419527649879456e-01 2.3292802274227142e-01</leafValues></_>
        <_>
          <internalNodes>
            0 -1 111 -67109935 2140131399 -749472400 1975189342
            1467997176 1285451865 -135663800 1439943423</internalNodes>
          <leafValues>
            -3.1088435649871826e-01 2.5409394502639771e-01</leafValues></_>
        <_>
          <internalNodes>
            0 -1 25 721404574 -568337577 378184240 -134023206 1286299720
            1180756480 -133137832 -143525516</internalNodes>
          <leafValues>
            -4.0831613540649414e-01 1.9124773144721985e-01</leafValues></_>
        <_>
          <internalNodes>
            0 -1 65 -550267922 95806372 -270598252 795053880 -879327324
            60136212 -824380418 1373984639</internalNodes>
          <leafValues>
            -4.0260234475135803e-01 1.8820115923881531e-01</leafValues></_>
        <_>
          <internalNodes>
            0 -1 118 1568344080 1405591323 1209621969 1240986071
            -753663806 -73529237 50396158 306419731</internalNodes>
          <leafValues>
            -4.2027822136878967e-01 1.8315584957599640e-01</leafValues></_>
        <_>
          <internalNodes>
            0 -1 36 1220735466 -288831734 -552116995 -1449309154
            1083312125 -722353860 2142945534 -134812293</internalNodes>
          <leafValues>
            -4.2377719283103943e-01 1.6690155863761902e-01</leafValues></_>
        <_>
          <internalNodes>
            0 -1 35 2049081838 -102256785 1514814207 893874429
            1817342557 -1140910973 1132251965 1895788855</internalNodes>
          <leafValues>
            -3.1682845950126648e-01 2.4212339520454407e-01</leafValues></_>
        <_>
          <internalNodes>
            0 -1 88 -548677909 438043020 2071396431 23152861 2073513926
            1534658104 87628042 1146266126</internalNodes>
          <leafValues>
            -3.1858375668525696e-01 2.5804010033607483e-01</leafValues></_></weakClassifiers></_></stages>
  <features>
    <_>
      <rect>
        0 0 3 5</rect></_>
    <_>
      <rect>
        0 0 4 3</rect></_>
    <_>
      <rect>
        0 0 4 4</rect></_>
    <_>
      <rect>
        0 0 5 1</rect></_>
    <_>
      <rect>
        0 0 5 2</rect></_>
    <_>
      <rect>
        0 1 1 2</rect></_>
    <_>
      <rect>
        0 1 2 1</rect></_>
    <_>
      <rect>
        0 1 3 5</rect></_>
    <_>
      <rect>
        0 1 5 5</rect></_>
    <_>
      <rect>
        0 2 2 1</rect></_>
    <_>
      <rect>
        0 3 1 1</rect></_>
    <_>
      <rect>
        0 3 1 2</rect></_>
    <_>
      <rect>
        0 3 1 3</rect></_>
    <_>
      <rect>
        0 3 4 3</rect></_>
    <_>
      <rect>
        0 3 5 4</rect></_>
    <_>
      <rect>
        0 4 1 1</rect></_>
    <_>
      <rect>
        0 4 1 3</rect></_>
    <_>
      <rect>
        0 4 4 3</rect></_>
    <_>
      <rect>
        0 7 1 1</rect></_>
    <_>
      <rect>
        0 7 1 3</rect></_>
    <_>
      <rect>
        0 7 2 2</rect></_>
    <_>
      <rect>
        0 7 4 2</rect></_>
    <_>
      <rect>
        0 8 1 1</rect></_>
    <_>
      <rect>
        0 9 1 1</rect></_>
    <_>
      <rect>
        0 9 2 2</rect></_>
    <_>
      <rect>
        0 10 1 1</rect></_>
    <_>
      <rect>
        0 10 2 2</rect></_>
    <_>
      <rect>
        0 10 3 2</rect></_>
    <_>
      <rect>
        0 11 2 1</rect></_>
    <_>
      <rect>
        0 12 1 1</rect></_>
    <_>
      <rect>
        0 13 1 1</rect></_>
    <_>
      <rect>
        0 13 2 1</rect></_>
    <_>
      <rect>
        0 13 4 1</rect></_>
    <_>
      <rect>
        0 13 5 1</rect></_>
    <_>
      <rect>
        1 0 1 2</rect></_>
    <_>
      <rect>
        1 0 2 3</rect></_>
    <_>
      <rect>
        1 0 3 1</rect></_>
    <_>
      <rect>
        1 1 2 1</rect></_>
    <_>
      <rect>
        1 1 5 3</rect></_>
    <_>
      <rect>
        1 2 1 1</rect></_>
    <_>
      <rect>
        1 3 1 2</rect></_>
    <_>
      <rect>
        1 3 3 2</rect></_>
    <_>
      <rect>
        1 3 4 2</rect></_>
    <_>
      <rect>
        1 4 4 3</rect></_>
    <_>
      <rect>
        1 5 1 2</rect></_>
    <_>
      <rect>
        1 8 2 2</rect></_>
    <_>
      <rect>
        1 8 3 2</rect></_>
    <_>
      <rect>
        1 12 1 1</rect></_>
    <_>
      <rect>
        1 12 2 1</rect></_>
    <_>
      <rect>
        1 13 1 1</rect></_>
    <_>
      <rect>
        1 13 2 1</rect></_>
    <_>
      <rect>
        2 0 2 1</rect></_>
    <_>
      <rect>
        2 0 2 4</rect></_>
    <_>
      <rect>
        2 0 4 4</rect></_>
    <_>
      <rect>
        2 1 1 1</rect></_>
    <_>
      <rect>
        2 10 1 1</rect></_>
    <_>
      <rect>
        2 10 2 1</rect></_>
    <_>
      <rect>
        2 10 3 2</rect></_>
    <_>
      <rect>
        2 12 1 1</rect></_>
    <_>
      <rect>
        2 13 1 1</rect></_>
    <_>
      <rect>
        2 13 4 1</rect></_>
    <_>
      <rect>
        3 0 1 1</rect></_>
    <_>
      <rect>
        3 0 3 1</rect></_>
    <_>
      <rect>
        3 4 4 3</rect></_>
    <_>
      <rect>
        3 7 2 2</rect></_>
    <_>
      <rect>
        3 7 4 2</rect></_>
    <_>
      <rect>
        3 9 1 1</rect></_>
    <_>
      <rect>
        3 11 1 1</rect></_>
    <_>
      <rect>
        3 13 1 1</rect></_>
    <_>
      <rect>
        3 13 2 1</rect></_>
    <_>
      <rect>
        4 0 1 1</rect></_>
    <_>
      <rect>
        4 0 4 1</rect></_>
    <_>
      <rect>
        4 0 4 2</rect></_>
    <_>
      <rect>
        4 0 4 3</rect></_>
    <_>
      <rect>
        4 2 4 3</rect></_>
    <_>
      <rect>
        4 7 3 2</rect></_>
    <_>
      <rect>
        4 7 4 2</rect></_>
    <_>
      <rect>
        4 7 4 3</rect></_>
    <_>
      <rect>
        4 10 1 1</rect></_>
    <_>
      <rect>
        4 10 3 2</rect></_>
    <_>
      <rect>
        4 12 4 1</rect></_>
    <_>
      <rect>
        4 13 1 1</rect></_>
    <_>
      <rect>
        4 13 3 1</rect></_>
    <_>
      <rect>
        5 6 3 2</rect></_>
    <_>
      <rect>
        5 13 1 1</rect></_>
    <_>
      <rect>
        6 0 2 1</rect></_>
    <_>
      <rect>
        6 0 3 1</rect></_>
    <_>
      <rect>
        6 2 2 2</rect></_>
    <_>
      <rect>
        6 3 1 1</rect></_>
    <_>
      <rect>
        6 11 2 1</rect></_>
    <_>
      <rect>
        6 13 1 1</rect></_>
    <_>
      <rect>
        7 0 3 1</rect></_>
    <_>
      <rect>
        7 0 3 2</rect></_>
    <_>
      <rect>
        7 2 2 1</rect></_>
    <_>
      <rect>
        7 9 3 2</rect></_>
    <_>
      <rect>
        7 10 3 1</rect></_>
    <_>
      <rect>
        7 11 3 1</rect></_>
    <_>
      <rect>
        7 13 2 1</rect></_>
    <_>
      <rect>
        7 13 3 1</rect></_>
    <_>
      <rect>
        8 4 2 3</rect></_>
    <_>
      <rect>
        8 13 1 1</rect></_>
    <_>
      <rect>
        8 13 2 1</rect></_>
    <_>
      <rect>
        9 3 2 2</rect></_>
    <_>
      <rect>
        9 9 2 1</rect></_>
    <_>
      <rect>
        9 13 1 1</rect></_>
    <_>
      <rect>
        10 0 1 1</rect></_>
    <_>
      <rect>
        10 0 2 5</rect></_>
    <_>
      <rect>
        10 1 2 1</rect></_>
    <_>
      <rect>
        10 1 2 4</rect></_>
    <_>
      <rect>
        10 2 1 1</rect></_>
    <_>
      <rect>
        10 6 2 2</rect></_>
    <_>
      <rect>
        10 8 2 1</rect></_>
    <_>
      <rect>
        10 9 2 2</rect></_>
    <_>
      <rect>
        10 13 1 1</rect></_>
    <_>
      <rect>
        10 13 2 1</rect></_>
    <_>
      <rect>
        11 0 1 1</rect></_>
    <_>
      <rect>
        11 12 1 1</rect></_>
    <_>
      <rect>
        11 13 1 1</rect></_>
    <_>
      <rect>
        12 1 1 1</rect></_>
    <_>
      <rect>
        12 2 1 1</rect></_>
    <_>
      <rect>
        12 10 1 1</rect></_>
    <_>
      <rect>
        12 11 1 1</rect></_>
    <_>
      <rect>
        12 12 1 1</rect></_>
    <_>
      <rect>
        12 13 1 1</rect></_>
    <_>
      <rect>
        13 1 1 2</rect></_>
    <_>
      <rect>
        13 1 1 3</rect></_>
    <_>
      <rect>
        13 1 1 4</rect></_>
    <_>
      <rect>
        13 2 1 1</rect></_>
    <_>
      <rect>
        13 3 1 1</rect></_>
    <_>
      <rect>
        13 3 1 2</rect></_>
    <_>
      <rect>
        13 3 1 3</rect></_>
    <_>
      <rect>
        13 4 1 1</rect></_>
    <_>
      <rect>
        13 4 1 3</rect></_>
    <_>
      <rect>
        13 4 1 4</rect></_>
    <_>
      <rect>
        13 5 1 2</rect></_>
    <_>
      <rect>
        13 7 1 1</rect></_>
    <_>
      <rect>
        13 8 1 1</rect></_>
    <_>
      <rect>
        13 9 1 1</rect></_>
    <_>
      <rect>
        13 10 1 1</rect></_>
    <_>
      <rect>
        13 11 1 1</rect></_>
    <_>
      <rect>
        13 12 1 1</rect></_>
    <_>
      <rect>
        13 13 1 1</rect></_></features></cascade>
</opencv_storage>
